digraph Tree {
node [shape=box, style="filled, rounded", color="black", fontname="helvetica"] ;
edge [fontname="helvetica"] ;
0 [label=<alcohol &le; 0.469<br/>squared_error = 0.027<br/>samples = 857<br/>value = 0.535>, fillcolor="#f1bc95"] ;
1 [label=<sulphates &le; 0.183<br/>squared_error = 0.022<br/>samples = 700<br/>value = 0.502>, fillcolor="#f2c09c"] ;
0 -> 1 [labeldistance=2.5, labelangle=45, headlabel="True"] ;
2 [label=<volatile acidity &le; 0.365<br/>squared_error = 0.015<br/>samples = 402<br/>value = 0.458>, fillcolor="#f3c5a4"] ;
1 -> 2 ;
3 [label=<alcohol &le; 0.192<br/>squared_error = 0.014<br/>samples = 271<br/>value = 0.48>, fillcolor="#f3c2a0"] ;
2 -> 3 ;
4 [label=<density &le; 0.78<br/>squared_error = 0.013<br/>samples = 113<br/>value = 0.442>, fillcolor="#f3c7a7"] ;
3 -> 4 ;
5 [label=<alcohol &le; 0.046<br/>squared_error = 0.011<br/>samples = 112<br/>value = 0.446>, fillcolor="#f3c7a7"] ;
4 -> 5 ;
6 [label=<squared_error = 0.0<br/>samples = 1<br/>value = 0.0>, fillcolor="#ffffff"] ;
5 -> 6 ;
7 [label=<sulphates &le; 0.123<br/>squared_error = 0.01<br/>samples = 111<br/>value = 0.45>, fillcolor="#f3c6a6"] ;
5 -> 7 ;
8 [label=<Id &le; 0.045<br/>squared_error = 0.003<br/>samples = 34<br/>value = 0.394>, fillcolor="#f5cdb1"] ;
7 -> 8 ;
9 [label=<squared_error = 0.0<br/>samples = 1<br/>value = 0.2>, fillcolor="#fae6d7"] ;
8 -> 9 ;
10 [label=<volatile acidity &le; 0.161<br/>squared_error = 0.002<br/>samples = 33<br/>value = 0.4>, fillcolor="#f5cdb0"] ;
8 -> 10 ;
11 [label=<pH &le; 0.5<br/>squared_error = 0.009<br/>samples = 3<br/>value = 0.467>, fillcolor="#f3c4a3"] ;
10 -> 11 ;
12 [label=<squared_error = 0.0<br/>samples = 1<br/>value = 0.6>, fillcolor="#efb388"] ;
11 -> 12 ;
13 [label=<squared_error = 0.0<br/>samples = 2<br/>value = 0.4>, fillcolor="#f5cdb0"] ;
11 -> 13 ;
14 [label=<alcohol &le; 0.1<br/>squared_error = 0.001<br/>samples = 30<br/>value = 0.393>, fillcolor="#f5cdb1"] ;
10 -> 14 ;
15 [label=<squared_error = 0.0<br/>samples = 1<br/>value = 0.2>, fillcolor="#fae6d7"] ;
14 -> 15 ;
16 [label=<squared_error = -0.0<br/>samples = 29<br/>value = 0.4>, fillcolor="#f5cdb0"] ;
14 -> 16 ;
17 [label=<citric acid &le; 0.03<br/>squared_error = 0.01<br/>samples = 77<br/>value = 0.475>, fillcolor="#f3c3a1"] ;
7 -> 17 ;
18 [label=<Id &le; 0.013<br/>squared_error = 0.006<br/>samples = 5<br/>value = 0.64>, fillcolor="#eeae80"] ;
17 -> 18 ;
19 [label=<squared_error = 0.0<br/>samples = 1<br/>value = 0.8>, fillcolor="#ea9a61"] ;
18 -> 19 ;
20 [label=<squared_error = 0.0<br/>samples = 4<br/>value = 0.6>, fillcolor="#efb388"] ;
18 -> 20 ;
21 [label=<residual sugar &le; 0.113<br/>squared_error = 0.009<br/>samples = 72<br/>value = 0.464>, fillcolor="#f3c5a3"] ;
17 -> 21 ;
22 [label=<pH &le; 0.547<br/>squared_error = 0.01<br/>samples = 50<br/>value = 0.488>, fillcolor="#f2c29e"] ;
21 -> 22 ;
23 [label=<chlorides &le; 0.125<br/>squared_error = 0.009<br/>samples = 43<br/>value = 0.474>, fillcolor="#f3c3a1"] ;
22 -> 23 ;
24 [label=<Id &le; 0.077<br/>squared_error = 0.008<br/>samples = 32<br/>value = 0.45>, fillcolor="#f3c6a6"] ;
23 -> 24 ;
25 [label=<pH &le; 0.433<br/>squared_error = 0.009<br/>samples = 6<br/>value = 0.533>, fillcolor="#f1bc95"] ;
24 -> 25 ;
26 [label=<squared_error = 0.0<br/>samples = 2<br/>value = 0.4>, fillcolor="#f5cdb0"] ;
25 -> 26 ;
27 [label=<squared_error = 0.0<br/>samples = 4<br/>value = 0.6>, fillcolor="#efb388"] ;
25 -> 27 ;
28 [label=<pH &le; 0.252<br/>squared_error = 0.005<br/>samples = 26<br/>value = 0.431>, fillcolor="#f4c9aa"] ;
24 -> 28 ;
29 [label=<squared_error = 0.0<br/>samples = 1<br/>value = 0.6>, fillcolor="#efb388"] ;
28 -> 29 ;
30 [label=<total sulfur dioxide &le; 0.295<br/>squared_error = 0.004<br/>samples = 25<br/>value = 0.424>, fillcolor="#f4caab"] ;
28 -> 30 ;
31 [label=<Id &le; 0.138<br/>squared_error = 0.002<br/>samples = 20<br/>value = 0.41>, fillcolor="#f4cbae"] ;
30 -> 31 ;
32 [label=<volatile acidity &le; 0.168<br/>squared_error = 0.009<br/>samples = 3<br/>value = 0.467>, fillcolor="#f3c4a3"] ;
31 -> 32 ;
33 [label=<squared_error = 0.0<br/>samples = 1<br/>value = 0.6>, fillcolor="#efb388"] ;
32 -> 33 ;
34 [label=<squared_error = 0.0<br/>samples = 2<br/>value = 0.4>, fillcolor="#f5cdb0"] ;
32 -> 34 ;
35 [label=<squared_error = 0.0<br/>samples = 17<br/>value = 0.4>, fillcolor="#f5cdb0"] ;
31 -> 35 ;
36 [label=<chlorides &le; 0.112<br/>squared_error = 0.01<br/>samples = 5<br/>value = 0.48>, fillcolor="#f3c3a0"] ;
30 -> 36 ;
37 [label=<volatile acidity &le; 0.219<br/>squared_error = 0.009<br/>samples = 3<br/>value = 0.533>, fillcolor="#f1bc95"] ;
36 -> 37 ;
38 [label=<squared_error = 0.0<br/>samples = 1<br/>value = 0.4>, fillcolor="#f5cdb0"] ;
37 -> 38 ;
39 [label=<squared_error = 0.0<br/>samples = 2<br/>value = 0.6>, fillcolor="#efb388"] ;
37 -> 39 ;
40 [label=<squared_error = 0.0<br/>samples = 2<br/>value = 0.4>, fillcolor="#f5cdb0"] ;
36 -> 40 ;
41 [label=<citric acid &le; 0.255<br/>squared_error = 0.008<br/>samples = 11<br/>value = 0.545>, fillcolor="#f1ba93"] ;
23 -> 41 ;
42 [label=<squared_error = 0.0<br/>samples = 3<br/>value = 0.4>, fillcolor="#f5cdb0"] ;
41 -> 42 ;
43 [label=<squared_error = 0.0<br/>samples = 8<br/>value = 0.6>, fillcolor="#efb388"] ;
41 -> 43 ;
44 [label=<free sulfur dioxide &le; 0.201<br/>squared_error = 0.005<br/>samples = 7<br/>value = 0.571>, fillcolor="#f0b78e"] ;
22 -> 44 ;
45 [label=<squared_error = 0.0<br/>samples = 1<br/>value = 0.4>, fillcolor="#f5cdb0"] ;
44 -> 45 ;
46 [label=<squared_error = 0.0<br/>samples = 6<br/>value = 0.6>, fillcolor="#efb388"] ;
44 -> 46 ;
47 [label=<alcohol &le; 0.115<br/>squared_error = 0.002<br/>samples = 22<br/>value = 0.409>, fillcolor="#f4cbae"] ;
21 -> 47 ;
48 [label=<Id &le; 0.52<br/>squared_error = 0.01<br/>samples = 2<br/>value = 0.5>, fillcolor="#f2c09c"] ;
47 -> 48 ;
49 [label=<squared_error = 0.0<br/>samples = 1<br/>value = 0.6>, fillcolor="#efb388"] ;
48 -> 49 ;
50 [label=<squared_error = 0.0<br/>samples = 1<br/>value = 0.4>, fillcolor="#f5cdb0"] ;
48 -> 50 ;
51 [label=<squared_error = -0.0<br/>samples = 20<br/>value = 0.4>, fillcolor="#f5cdb0"] ;
47 -> 51 ;
52 [label=<squared_error = 0.0<br/>samples = 1<br/>value = 0.0>, fillcolor="#ffffff"] ;
4 -> 52 ;
53 [label=<Id &le; 0.865<br/>squared_error = 0.012<br/>samples = 158<br/>value = 0.508>, fillcolor="#f2bf9a"] ;
3 -> 53 ;
54 [label=<sulphates &le; 0.177<br/>squared_error = 0.012<br/>samples = 133<br/>value = 0.523>, fillcolor="#f1bd97"] ;
53 -> 54 ;
55 [label=<total sulfur dioxide &le; 0.108<br/>squared_error = 0.012<br/>samples = 123<br/>value = 0.515>, fillcolor="#f2be99"] ;
54 -> 55 ;
56 [label=<free sulfur dioxide &le; 0.142<br/>squared_error = 0.012<br/>samples = 60<br/>value = 0.54>, fillcolor="#f1bb94"] ;
55 -> 56 ;
57 [label=<fixed acidity &le; 0.442<br/>squared_error = 0.015<br/>samples = 43<br/>value = 0.516>, fillcolor="#f2be99"] ;
56 -> 57 ;
58 [label=<total sulfur dioxide &le; 0.088<br/>squared_error = 0.013<br/>samples = 35<br/>value = 0.537>, fillcolor="#f1bb95"] ;
57 -> 58 ;
59 [label=<total sulfur dioxide &le; 0.071<br/>squared_error = 0.012<br/>samples = 32<br/>value = 0.55>, fillcolor="#f1ba92"] ;
58 -> 59 ;
60 [label=<fixed acidity &le; 0.261<br/>squared_error = 0.012<br/>samples = 26<br/>value = 0.531>, fillcolor="#f1bc96"] ;
59 -> 60 ;
61 [label=<chlorides &le; 0.105<br/>squared_error = 0.009<br/>samples = 9<br/>value = 0.467>, fillcolor="#f3c4a3"] ;
60 -> 61 ;
62 [label=<squared_error = 0.0<br/>samples = 5<br/>value = 0.4>, fillcolor="#f5cdb0"] ;
61 -> 62 ;
63 [label=<total sulfur dioxide &le; 0.051<br/>squared_error = 0.008<br/>samples = 4<br/>value = 0.55>, fillcolor="#f1ba92"] ;
61 -> 63 ;
64 [label=<squared_error = 0.0<br/>samples = 3<br/>value = 0.6>, fillcolor="#efb388"] ;
63 -> 64 ;
65 [label=<squared_error = 0.0<br/>samples = 1<br/>value = 0.4>, fillcolor="#f5cdb0"] ;
63 -> 65 ;
66 [label=<fixed acidity &le; 0.345<br/>squared_error = 0.011<br/>samples = 17<br/>value = 0.565>, fillcolor="#f0b88f"] ;
60 -> 66 ;
67 [label=<chlorides &le; 0.092<br/>squared_error = 0.004<br/>samples = 10<br/>value = 0.62>, fillcolor="#efb184"] ;
66 -> 67 ;
68 [label=<squared_error = 0.0<br/>samples = 1<br/>value = 0.8>, fillcolor="#ea9a61"] ;
67 -> 68 ;
69 [label=<squared_error = 0.0<br/>samples = 9<br/>value = 0.6>, fillcolor="#efb388"] ;
67 -> 69 ;
70 [label=<chlorides &le; 0.115<br/>squared_error = 0.01<br/>samples = 7<br/>value = 0.486>, fillcolor="#f2c29f"] ;
66 -> 70 ;
71 [label=<squared_error = 0.0<br/>samples = 3<br/>value = 0.4>, fillcolor="#f5cdb0"] ;
70 -> 71 ;
72 [label=<Id &le; 0.393<br/>squared_error = 0.008<br/>samples = 4<br/>value = 0.55>, fillcolor="#f1ba92"] ;
70 -> 72 ;
73 [label=<squared_error = 0.0<br/>samples = 1<br/>value = 0.4>, fillcolor="#f5cdb0"] ;
72 -> 73 ;
74 [label=<squared_error = 0.0<br/>samples = 3<br/>value = 0.6>, fillcolor="#efb388"] ;
72 -> 74 ;
75 [label=<citric acid &le; 0.285<br/>squared_error = 0.006<br/>samples = 6<br/>value = 0.633>, fillcolor="#efaf82"] ;
59 -> 75 ;
76 [label=<squared_error = -0.0<br/>samples = 5<br/>value = 0.6>, fillcolor="#efb388"] ;
75 -> 76 ;
77 [label=<squared_error = 0.0<br/>samples = 1<br/>value = 0.8>, fillcolor="#ea9a61"] ;
75 -> 77 ;
78 [label=<free sulfur dioxide &le; 0.075<br/>squared_error = 0.0<br/>samples = 3<br/>value = 0.4>, fillcolor="#f5cdb0"] ;
58 -> 78 ;
79 [label=<squared_error = 0.0<br/>samples = 1<br/>value = 0.4>, fillcolor="#f5cdb0"] ;
78 -> 79 ;
80 [label=<squared_error = 0.0<br/>samples = 2<br/>value = 0.4>, fillcolor="#f5cdb0"] ;
78 -> 80 ;
81 [label=<chlorides &le; 0.149<br/>squared_error = 0.014<br/>samples = 8<br/>value = 0.425>, fillcolor="#f4c9ab"] ;
57 -> 81 ;
82 [label=<chlorides &le; 0.102<br/>squared_error = 0.008<br/>samples = 7<br/>value = 0.457>, fillcolor="#f3c5a4"] ;
81 -> 82 ;
83 [label=<pH &le; 0.346<br/>squared_error = 0.009<br/>samples = 3<br/>value = 0.533>, fillcolor="#f1bc95"] ;
82 -> 83 ;
84 [label=<squared_error = 0.0<br/>samples = 2<br/>value = 0.6>, fillcolor="#efb388"] ;
83 -> 84 ;
85 [label=<squared_error = 0.0<br/>samples = 1<br/>value = 0.4>, fillcolor="#f5cdb0"] ;
83 -> 85 ;
86 [label=<squared_error = 0.0<br/>samples = 4<br/>value = 0.4>, fillcolor="#f5cdb0"] ;
82 -> 86 ;
87 [label=<squared_error = -0.0<br/>samples = 1<br/>value = 0.2>, fillcolor="#fae6d7"] ;
81 -> 87 ;
88 [label=<squared_error = -0.0<br/>samples = 17<br/>value = 0.6>, fillcolor="#efb388"] ;
56 -> 88 ;
89 [label=<sulphates &le; 0.129<br/>squared_error = 0.01<br/>samples = 63<br/>value = 0.492>, fillcolor="#f2c19e"] ;
55 -> 89 ;
90 [label=<density &le; 0.529<br/>squared_error = 0.008<br/>samples = 24<br/>value = 0.458>, fillcolor="#f3c5a4"] ;
89 -> 90 ;
91 [label=<pH &le; 0.287<br/>squared_error = 0.004<br/>samples = 16<br/>value = 0.425>, fillcolor="#f4c9ab"] ;
90 -> 91 ;
92 [label=<squared_error = 0.0<br/>samples = 1<br/>value = 0.6>, fillcolor="#efb388"] ;
91 -> 92 ;
93 [label=<volatile acidity &le; 0.195<br/>squared_error = 0.002<br/>samples = 15<br/>value = 0.413>, fillcolor="#f4cbad"] ;
91 -> 93 ;
94 [label=<density &le; 0.485<br/>squared_error = 0.01<br/>samples = 2<br/>value = 0.5>, fillcolor="#f2c09c"] ;
93 -> 94 ;
95 [label=<squared_error = 0.0<br/>samples = 1<br/>value = 0.6>, fillcolor="#efb388"] ;
94 -> 95 ;
96 [label=<squared_error = 0.0<br/>samples = 1<br/>value = 0.4>, fillcolor="#f5cdb0"] ;
94 -> 96 ;
97 [label=<squared_error = -0.0<br/>samples = 13<br/>value = 0.4>, fillcolor="#f5cdb0"] ;
93 -> 97 ;
98 [label=<chlorides &le; 0.114<br/>squared_error = 0.009<br/>samples = 8<br/>value = 0.525>, fillcolor="#f1bd97"] ;
90 -> 98 ;
99 [label=<residual sugar &le; 0.091<br/>squared_error = 0.008<br/>samples = 4<br/>value = 0.45>, fillcolor="#f3c6a6"] ;
98 -> 99 ;
100 [label=<squared_error = 0.0<br/>samples = 1<br/>value = 0.6>, fillcolor="#efb388"] ;
99 -> 100 ;
101 [label=<squared_error = 0.0<br/>samples = 3<br/>value = 0.4>, fillcolor="#f5cdb0"] ;
99 -> 101 ;
102 [label=<squared_error = 0.0<br/>samples = 4<br/>value = 0.6>, fillcolor="#efb388"] ;
98 -> 102 ;
103 [label=<pH &le; 0.327<br/>squared_error = 0.01<br/>samples = 39<br/>value = 0.513>, fillcolor="#f2be99"] ;
89 -> 103 ;
104 [label=<density &le; 0.714<br/>squared_error = 0.006<br/>samples = 6<br/>value = 0.433>, fillcolor="#f4c8a9"] ;
103 -> 104 ;
105 [label=<squared_error = 0.0<br/>samples = 5<br/>value = 0.4>, fillcolor="#f5cdb0"] ;
104 -> 105 ;
106 [label=<squared_error = 0.0<br/>samples = 1<br/>value = 0.6>, fillcolor="#efb388"] ;
104 -> 106 ;
107 [label=<free sulfur dioxide &le; 0.276<br/>squared_error = 0.009<br/>samples = 33<br/>value = 0.527>, fillcolor="#f1bd97"] ;
103 -> 107 ;
108 [label=<chlorides &le; 0.108<br/>squared_error = 0.006<br/>samples = 16<br/>value = 0.562>, fillcolor="#f0b890"] ;
107 -> 108 ;
109 [label=<volatile acidity &le; 0.202<br/>squared_error = 0.009<br/>samples = 3<br/>value = 0.467>, fillcolor="#f3c4a3"] ;
108 -> 109 ;
110 [label=<squared_error = 0.0<br/>samples = 1<br/>value = 0.6>, fillcolor="#efb388"] ;
109 -> 110 ;
111 [label=<squared_error = 0.0<br/>samples = 2<br/>value = 0.4>, fillcolor="#f5cdb0"] ;
109 -> 111 ;
112 [label=<fixed acidity &le; 0.562<br/>squared_error = 0.003<br/>samples = 13<br/>value = 0.585>, fillcolor="#f0b58b"] ;
108 -> 112 ;
113 [label=<squared_error = 0.0<br/>samples = 12<br/>value = 0.6>, fillcolor="#efb388"] ;
112 -> 113 ;
114 [label=<squared_error = -0.0<br/>samples = 1<br/>value = 0.4>, fillcolor="#f5cdb0"] ;
112 -> 114 ;
115 [label=<alcohol &le; 0.238<br/>squared_error = 0.01<br/>samples = 17<br/>value = 0.494>, fillcolor="#f2c19d"] ;
107 -> 115 ;
116 [label=<squared_error = 0.0<br/>samples = 6<br/>value = 0.4>, fillcolor="#f5cdb0"] ;
115 -> 116 ;
117 [label=<free sulfur dioxide &le; 0.485<br/>squared_error = 0.008<br/>samples = 11<br/>value = 0.545>, fillcolor="#f1ba93"] ;
115 -> 117 ;
118 [label=<volatile acidity &le; 0.332<br/>squared_error = 0.004<br/>samples = 9<br/>value = 0.578>, fillcolor="#f0b68d"] ;
117 -> 118 ;
119 [label=<squared_error = 0.0<br/>samples = 8<br/>value = 0.6>, fillcolor="#efb388"] ;
118 -> 119 ;
120 [label=<squared_error = -0.0<br/>samples = 1<br/>value = 0.4>, fillcolor="#f5cdb0"] ;
118 -> 120 ;
121 [label=<squared_error = -0.0<br/>samples = 2<br/>value = 0.4>, fillcolor="#f5cdb0"] ;
117 -> 121 ;
122 [label=<residual sugar &le; 0.137<br/>squared_error = 0.004<br/>samples = 10<br/>value = 0.62>, fillcolor="#efb184"] ;
54 -> 122 ;
123 [label=<squared_error = 0.0<br/>samples = 9<br/>value = 0.6>, fillcolor="#efb388"] ;
122 -> 123 ;
124 [label=<squared_error = 0.0<br/>samples = 1<br/>value = 0.8>, fillcolor="#ea9a61"] ;
122 -> 124 ;
125 [label=<residual sugar &le; 0.086<br/>squared_error = 0.007<br/>samples = 25<br/>value = 0.424>, fillcolor="#f4caab"] ;
53 -> 125 ;
126 [label=<residual sugar &le; 0.045<br/>squared_error = 0.002<br/>samples = 17<br/>value = 0.388>, fillcolor="#f5ceb2"] ;
125 -> 126 ;
127 [label=<residual sugar &le; 0.034<br/>squared_error = 0.01<br/>samples = 2<br/>value = 0.3>, fillcolor="#f7d9c4"] ;
126 -> 127 ;
128 [label=<squared_error = 0.0<br/>samples = 1<br/>value = 0.4>, fillcolor="#f5cdb0"] ;
127 -> 128 ;
129 [label=<squared_error = 0.0<br/>samples = 1<br/>value = 0.2>, fillcolor="#fae6d7"] ;
127 -> 129 ;
130 [label=<squared_error = -0.0<br/>samples = 15<br/>value = 0.4>, fillcolor="#f5cdb0"] ;
126 -> 130 ;
131 [label=<pH &le; 0.465<br/>squared_error = 0.01<br/>samples = 8<br/>value = 0.5>, fillcolor="#f2c09c"] ;
125 -> 131 ;
132 [label=<squared_error = 0.0<br/>samples = 3<br/>value = 0.4>, fillcolor="#f5cdb0"] ;
131 -> 132 ;
133 [label=<Id &le; 0.894<br/>squared_error = 0.006<br/>samples = 5<br/>value = 0.56>, fillcolor="#f0b890"] ;
131 -> 133 ;
134 [label=<squared_error = 0.0<br/>samples = 1<br/>value = 0.4>, fillcolor="#f5cdb0"] ;
133 -> 134 ;
135 [label=<squared_error = 0.0<br/>samples = 4<br/>value = 0.6>, fillcolor="#efb388"] ;
133 -> 135 ;
136 [label=<Id &le; 0.91<br/>squared_error = 0.015<br/>samples = 131<br/>value = 0.411>, fillcolor="#f4cbae"] ;
2 -> 136 ;
137 [label=<density &le; 0.35<br/>squared_error = 0.012<br/>samples = 117<br/>value = 0.424>, fillcolor="#f4caab"] ;
136 -> 137 ;
138 [label=<volatile acidity &le; 0.57<br/>squared_error = 0.01<br/>samples = 5<br/>value = 0.28>, fillcolor="#f8dcc8"] ;
137 -> 138 ;
139 [label=<squared_error = 0.0<br/>samples = 2<br/>value = 0.4>, fillcolor="#f5cdb0"] ;
138 -> 139 ;
140 [label=<squared_error = 0.0<br/>samples = 3<br/>value = 0.2>, fillcolor="#fae6d7"] ;
138 -> 140 ;
141 [label=<total sulfur dioxide &le; 0.012<br/>squared_error = 0.011<br/>samples = 112<br/>value = 0.43>, fillcolor="#f4c9aa"] ;
137 -> 141 ;
142 [label=<pH &le; 0.512<br/>squared_error = 0.009<br/>samples = 3<br/>value = 0.267>, fillcolor="#f8ddca"] ;
141 -> 142 ;
143 [label=<squared_error = 0.0<br/>samples = 2<br/>value = 0.2>, fillcolor="#fae6d7"] ;
142 -> 143 ;
144 [label=<squared_error = 0.0<br/>samples = 1<br/>value = 0.4>, fillcolor="#f5cdb0"] ;
142 -> 144 ;
145 [label=<Id &le; 0.468<br/>squared_error = 0.01<br/>samples = 109<br/>value = 0.435>, fillcolor="#f4c8a9"] ;
141 -> 145 ;
146 [label=<alcohol &le; 0.1<br/>squared_error = 0.006<br/>samples = 55<br/>value = 0.411>, fillcolor="#f4cbae"] ;
145 -> 146 ;
147 [label=<total sulfur dioxide &le; 0.201<br/>squared_error = 0.009<br/>samples = 3<br/>value = 0.533>, fillcolor="#f1bc95"] ;
146 -> 147 ;
148 [label=<squared_error = 0.0<br/>samples = 2<br/>value = 0.6>, fillcolor="#efb388"] ;
147 -> 148 ;
149 [label=<squared_error = 0.0<br/>samples = 1<br/>value = 0.4>, fillcolor="#f5cdb0"] ;
147 -> 149 ;
150 [label=<citric acid &le; 0.525<br/>squared_error = 0.005<br/>samples = 52<br/>value = 0.404>, fillcolor="#f4ccaf"] ;
146 -> 150 ;
151 [label=<alcohol &le; 0.392<br/>squared_error = 0.005<br/>samples = 51<br/>value = 0.4>, fillcolor="#f5cdb0"] ;
150 -> 151 ;
152 [label=<volatile acidity &le; 0.45<br/>squared_error = 0.004<br/>samples = 49<br/>value = 0.404>, fillcolor="#f4ccaf"] ;
151 -> 152 ;
153 [label=<residual sugar &le; 0.051<br/>squared_error = 0.002<br/>samples = 32<br/>value = 0.388>, fillcolor="#f5ceb2"] ;
152 -> 153 ;
154 [label=<total sulfur dioxide &le; 0.03<br/>squared_error = 0.01<br/>samples = 2<br/>value = 0.3>, fillcolor="#f7d9c4"] ;
153 -> 154 ;
155 [label=<squared_error = 0.0<br/>samples = 1<br/>value = 0.2>, fillcolor="#fae6d7"] ;
154 -> 155 ;
156 [label=<squared_error = 0.0<br/>samples = 1<br/>value = 0.4>, fillcolor="#f5cdb0"] ;
154 -> 156 ;
157 [label=<citric acid &le; 0.25<br/>squared_error = 0.001<br/>samples = 30<br/>value = 0.393>, fillcolor="#f5cdb1"] ;
153 -> 157 ;
158 [label=<squared_error = -0.0<br/>samples = 26<br/>value = 0.4>, fillcolor="#f5cdb0"] ;
157 -> 158 ;
159 [label=<Id &le; 0.102<br/>squared_error = 0.008<br/>samples = 4<br/>value = 0.35>, fillcolor="#f6d3ba"] ;
157 -> 159 ;
160 [label=<squared_error = 0.0<br/>samples = 1<br/>value = 0.2>, fillcolor="#fae6d7"] ;
159 -> 160 ;
161 [label=<squared_error = 0.0<br/>samples = 3<br/>value = 0.4>, fillcolor="#f5cdb0"] ;
159 -> 161 ;
162 [label=<sulphates &le; 0.129<br/>squared_error = 0.006<br/>samples = 17<br/>value = 0.435>, fillcolor="#f4c8a9"] ;
152 -> 162 ;
163 [label=<squared_error = -0.0<br/>samples = 12<br/>value = 0.4>, fillcolor="#f5cdb0"] ;
162 -> 163 ;
164 [label=<chlorides &le; 0.101<br/>squared_error = 0.01<br/>samples = 5<br/>value = 0.52>, fillcolor="#f1bd98"] ;
162 -> 164 ;
165 [label=<squared_error = 0.0<br/>samples = 2<br/>value = 0.4>, fillcolor="#f5cdb0"] ;
164 -> 165 ;
166 [label=<squared_error = 0.0<br/>samples = 3<br/>value = 0.6>, fillcolor="#efb388"] ;
164 -> 166 ;
167 [label=<density &le; 0.498<br/>squared_error = 0.01<br/>samples = 2<br/>value = 0.3>, fillcolor="#f7d9c4"] ;
151 -> 167 ;
168 [label=<squared_error = 0.0<br/>samples = 1<br/>value = 0.2>, fillcolor="#fae6d7"] ;
167 -> 168 ;
169 [label=<squared_error = 0.0<br/>samples = 1<br/>value = 0.4>, fillcolor="#f5cdb0"] ;
167 -> 169 ;
170 [label=<squared_error = -0.0<br/>samples = 1<br/>value = 0.6>, fillcolor="#efb388"] ;
150 -> 170 ;
171 [label=<chlorides &le; 0.096<br/>squared_error = 0.013<br/>samples = 54<br/>value = 0.459>, fillcolor="#f3c5a4"] ;
145 -> 171 ;
172 [label=<squared_error = 0.0<br/>samples = 4<br/>value = 0.6>, fillcolor="#efb388"] ;
171 -> 172 ;
173 [label=<pH &le; 0.654<br/>squared_error = 0.012<br/>samples = 50<br/>value = 0.448>, fillcolor="#f3c7a6"] ;
171 -> 173 ;
174 [label=<alcohol &le; 0.162<br/>squared_error = 0.011<br/>samples = 49<br/>value = 0.453>, fillcolor="#f3c6a5"] ;
173 -> 174 ;
175 [label=<free sulfur dioxide &le; 0.187<br/>squared_error = 0.004<br/>samples = 9<br/>value = 0.378>, fillcolor="#f5cfb4"] ;
174 -> 175 ;
176 [label=<total sulfur dioxide &le; 0.274<br/>squared_error = 0.01<br/>samples = 2<br/>value = 0.3>, fillcolor="#f7d9c4"] ;
175 -> 176 ;
177 [label=<squared_error = 0.0<br/>samples = 1<br/>value = 0.2>, fillcolor="#fae6d7"] ;
176 -> 177 ;
178 [label=<squared_error = 0.0<br/>samples = 1<br/>value = 0.4>, fillcolor="#f5cdb0"] ;
176 -> 178 ;
179 [label=<squared_error = 0.0<br/>samples = 7<br/>value = 0.4>, fillcolor="#f5cdb0"] ;
175 -> 179 ;
180 [label=<citric acid &le; 0.05<br/>squared_error = 0.011<br/>samples = 40<br/>value = 0.47>, fillcolor="#f3c4a2"] ;
174 -> 180 ;
181 [label=<sulphates &le; 0.147<br/>squared_error = 0.008<br/>samples = 18<br/>value = 0.422>, fillcolor="#f4caab"] ;
180 -> 181 ;
182 [label=<density &le; 0.561<br/>squared_error = 0.004<br/>samples = 9<br/>value = 0.378>, fillcolor="#f5cfb4"] ;
181 -> 182 ;
183 [label=<squared_error = 0.0<br/>samples = 8<br/>value = 0.4>, fillcolor="#f5cdb0"] ;
182 -> 183 ;
184 [label=<squared_error = 0.0<br/>samples = 1<br/>value = 0.2>, fillcolor="#fae6d7"] ;
182 -> 184 ;
185 [label=<density &le; 0.459<br/>squared_error = 0.009<br/>samples = 9<br/>value = 0.467>, fillcolor="#f3c4a3"] ;
181 -> 185 ;
186 [label=<squared_error = 0.0<br/>samples = 6<br/>value = 0.4>, fillcolor="#f5cdb0"] ;
185 -> 186 ;
187 [label=<squared_error = 0.0<br/>samples = 3<br/>value = 0.6>, fillcolor="#efb388"] ;
185 -> 187 ;
188 [label=<Id &le; 0.809<br/>squared_error = 0.01<br/>samples = 22<br/>value = 0.509>, fillcolor="#f2bf9a"] ;
180 -> 188 ;
189 [label=<volatile acidity &le; 0.44<br/>squared_error = 0.008<br/>samples = 14<br/>value = 0.543>, fillcolor="#f1bb94"] ;
188 -> 189 ;
190 [label=<pH &le; 0.331<br/>squared_error = 0.006<br/>samples = 12<br/>value = 0.567>, fillcolor="#f0b88f"] ;
189 -> 190 ;
191 [label=<squared_error = 0.0<br/>samples = 1<br/>value = 0.4>, fillcolor="#f5cdb0"] ;
190 -> 191 ;
192 [label=<density &le; 0.679<br/>squared_error = 0.003<br/>samples = 11<br/>value = 0.582>, fillcolor="#f0b68c"] ;
190 -> 192 ;
193 [label=<squared_error = 0.0<br/>samples = 10<br/>value = 0.6>, fillcolor="#efb388"] ;
192 -> 193 ;
194 [label=<squared_error = -0.0<br/>samples = 1<br/>value = 0.4>, fillcolor="#f5cdb0"] ;
192 -> 194 ;
195 [label=<squared_error = -0.0<br/>samples = 2<br/>value = 0.4>, fillcolor="#f5cdb0"] ;
189 -> 195 ;
196 [label=<residual sugar &le; 0.281<br/>squared_error = 0.008<br/>samples = 8<br/>value = 0.45>, fillcolor="#f3c6a6"] ;
188 -> 196 ;
197 [label=<chlorides &le; 0.113<br/>squared_error = 0.005<br/>samples = 7<br/>value = 0.429>, fillcolor="#f4c9aa"] ;
196 -> 197 ;
198 [label=<alcohol &le; 0.315<br/>squared_error = 0.01<br/>samples = 2<br/>value = 0.5>, fillcolor="#f2c09c"] ;
197 -> 198 ;
199 [label=<squared_error = 0.0<br/>samples = 1<br/>value = 0.6>, fillcolor="#efb388"] ;
198 -> 199 ;
200 [label=<squared_error = 0.0<br/>samples = 1<br/>value = 0.4>, fillcolor="#f5cdb0"] ;
198 -> 200 ;
201 [label=<squared_error = 0.0<br/>samples = 5<br/>value = 0.4>, fillcolor="#f5cdb0"] ;
197 -> 201 ;
202 [label=<squared_error = 0.0<br/>samples = 1<br/>value = 0.6>, fillcolor="#efb388"] ;
196 -> 202 ;
203 [label=<squared_error = 0.0<br/>samples = 1<br/>value = 0.2>, fillcolor="#fae6d7"] ;
173 -> 203 ;
204 [label=<Id &le; 0.95<br/>squared_error = 0.033<br/>samples = 14<br/>value = 0.3>, fillcolor="#f7d9c4"] ;
136 -> 204 ;
205 [label=<chlorides &le; 0.118<br/>squared_error = 0.028<br/>samples = 7<br/>value = 0.171>, fillcolor="#fbe9dd"] ;
204 -> 205 ;
206 [label=<Id &le; 0.919<br/>squared_error = 0.01<br/>samples = 5<br/>value = 0.08>, fillcolor="#fdf5ef"] ;
205 -> 206 ;
207 [label=<squared_error = 0.0<br/>samples = 2<br/>value = 0.2>, fillcolor="#fae6d7"] ;
206 -> 207 ;
208 [label=<squared_error = 0.0<br/>samples = 3<br/>value = 0.0>, fillcolor="#ffffff"] ;
206 -> 208 ;
209 [label=<squared_error = 0.0<br/>samples = 2<br/>value = 0.4>, fillcolor="#f5cdb0"] ;
205 -> 209 ;
210 [label=<free sulfur dioxide &le; 0.56<br/>squared_error = 0.005<br/>samples = 7<br/>value = 0.429>, fillcolor="#f4c9aa"] ;
204 -> 210 ;
211 [label=<squared_error = 0.0<br/>samples = 6<br/>value = 0.4>, fillcolor="#f5cdb0"] ;
210 -> 211 ;
212 [label=<squared_error = 0.0<br/>samples = 1<br/>value = 0.6>, fillcolor="#efb388"] ;
210 -> 212 ;
213 [label=<alcohol &le; 0.223<br/>squared_error = 0.024<br/>samples = 298<br/>value = 0.562>, fillcolor="#f0b890"] ;
1 -> 213 ;
214 [label=<fixed acidity &le; 0.659<br/>squared_error = 0.018<br/>samples = 111<br/>value = 0.488>, fillcolor="#f2c19e"] ;
213 -> 214 ;
215 [label=<total sulfur dioxide &le; 0.191<br/>squared_error = 0.013<br/>samples = 104<br/>value = 0.471>, fillcolor="#f3c4a2"] ;
214 -> 215 ;
216 [label=<chlorides &le; 0.099<br/>squared_error = 0.012<br/>samples = 66<br/>value = 0.503>, fillcolor="#f2c09b"] ;
215 -> 216 ;
217 [label=<fixed acidity &le; 0.177<br/>squared_error = 0.009<br/>samples = 13<br/>value = 0.585>, fillcolor="#f0b58b"] ;
216 -> 217 ;
218 [label=<squared_error = 0.0<br/>samples = 2<br/>value = 0.4>, fillcolor="#f5cdb0"] ;
217 -> 218 ;
219 [label=<Id &le; 0.099<br/>squared_error = 0.003<br/>samples = 11<br/>value = 0.618>, fillcolor="#efb185"] ;
217 -> 219 ;
220 [label=<squared_error = 0.0<br/>samples = 1<br/>value = 0.8>, fillcolor="#ea9a61"] ;
219 -> 220 ;
221 [label=<fixed acidity &le; 0.221<br/>squared_error = 0.0<br/>samples = 10<br/>value = 0.6>, fillcolor="#efb388"] ;
219 -> 221 ;
222 [label=<squared_error = 0.0<br/>samples = 5<br/>value = 0.6>, fillcolor="#efb388"] ;
221 -> 222 ;
223 [label=<alcohol &le; 0.092<br/>squared_error = 0.0<br/>samples = 5<br/>value = 0.6>, fillcolor="#efb388"] ;
221 -> 223 ;
224 [label=<squared_error = 0.0<br/>samples = 1<br/>value = 0.6>, fillcolor="#efb388"] ;
223 -> 224 ;
225 [label=<squared_error = 0.0<br/>samples = 4<br/>value = 0.6>, fillcolor="#efb388"] ;
223 -> 225 ;
226 [label=<volatile acidity &le; 0.329<br/>squared_error = 0.011<br/>samples = 53<br/>value = 0.483>, fillcolor="#f2c29f"] ;
216 -> 226 ;
227 [label=<density &le; 0.575<br/>squared_error = 0.01<br/>samples = 42<br/>value = 0.505>, fillcolor="#f2bf9b"] ;
226 -> 227 ;
228 [label=<total sulfur dioxide &le; 0.099<br/>squared_error = 0.009<br/>samples = 24<br/>value = 0.475>, fillcolor="#f3c3a1"] ;
227 -> 228 ;
229 [label=<total sulfur dioxide &le; 0.041<br/>squared_error = 0.009<br/>samples = 11<br/>value = 0.527>, fillcolor="#f1bd97"] ;
228 -> 229 ;
230 [label=<squared_error = 0.0<br/>samples = 3<br/>value = 0.4>, fillcolor="#f5cdb0"] ;
229 -> 230 ;
231 [label=<Id &le; 0.743<br/>squared_error = 0.004<br/>samples = 8<br/>value = 0.575>, fillcolor="#f0b78d"] ;
229 -> 231 ;
232 [label=<squared_error = 0.0<br/>samples = 7<br/>value = 0.6>, fillcolor="#efb388"] ;
231 -> 232 ;
233 [label=<squared_error = -0.0<br/>samples = 1<br/>value = 0.4>, fillcolor="#f5cdb0"] ;
231 -> 233 ;
234 [label=<Id &le; 0.013<br/>squared_error = 0.005<br/>samples = 13<br/>value = 0.431>, fillcolor="#f4c9aa"] ;
228 -> 234 ;
235 [label=<squared_error = 0.0<br/>samples = 1<br/>value = 0.6>, fillcolor="#efb388"] ;
234 -> 235 ;
236 [label=<residual sugar &le; 0.106<br/>squared_error = 0.003<br/>samples = 12<br/>value = 0.417>, fillcolor="#f4caac"] ;
234 -> 236 ;
237 [label=<squared_error = -0.0<br/>samples = 11<br/>value = 0.4>, fillcolor="#f5cdb0"] ;
236 -> 237 ;
238 [label=<squared_error = 0.0<br/>samples = 1<br/>value = 0.6>, fillcolor="#efb388"] ;
236 -> 238 ;
239 [label=<citric acid &le; 0.55<br/>squared_error = 0.008<br/>samples = 18<br/>value = 0.544>, fillcolor="#f1ba93"] ;
227 -> 239 ;
240 [label=<fixed acidity &le; 0.575<br/>squared_error = 0.003<br/>samples = 14<br/>value = 0.586>, fillcolor="#f0b58b"] ;
239 -> 240 ;
241 [label=<squared_error = 0.0<br/>samples = 10<br/>value = 0.6>, fillcolor="#efb388"] ;
240 -> 241 ;
242 [label=<pH &le; 0.252<br/>squared_error = 0.008<br/>samples = 4<br/>value = 0.55>, fillcolor="#f1ba92"] ;
240 -> 242 ;
243 [label=<squared_error = 0.0<br/>samples = 3<br/>value = 0.6>, fillcolor="#efb388"] ;
242 -> 243 ;
244 [label=<squared_error = 0.0<br/>samples = 1<br/>value = 0.4>, fillcolor="#f5cdb0"] ;
242 -> 244 ;
245 [label=<squared_error = -0.0<br/>samples = 4<br/>value = 0.4>, fillcolor="#f5cdb0"] ;
239 -> 245 ;
246 [label=<citric acid &le; 0.42<br/>squared_error = 0.007<br/>samples = 11<br/>value = 0.4>, fillcolor="#f5cdb0"] ;
226 -> 246 ;
247 [label=<density &le; 0.483<br/>squared_error = 0.004<br/>samples = 10<br/>value = 0.38>, fillcolor="#f5cfb4"] ;
246 -> 247 ;
248 [label=<squared_error = 0.0<br/>samples = 1<br/>value = 0.2>, fillcolor="#fae6d7"] ;
247 -> 248 ;
249 [label=<squared_error = 0.0<br/>samples = 9<br/>value = 0.4>, fillcolor="#f5cdb0"] ;
247 -> 249 ;
250 [label=<squared_error = 0.0<br/>samples = 1<br/>value = 0.6>, fillcolor="#efb388"] ;
246 -> 250 ;
251 [label=<Id &le; 0.635<br/>squared_error = 0.009<br/>samples = 38<br/>value = 0.416>, fillcolor="#f4cbad"] ;
215 -> 251 ;
252 [label=<chlorides &le; 0.115<br/>squared_error = 0.006<br/>samples = 27<br/>value = 0.385>, fillcolor="#f5ceb3"] ;
251 -> 252 ;
253 [label=<fixed acidity &le; 0.239<br/>squared_error = 0.009<br/>samples = 3<br/>value = 0.267>, fillcolor="#f8ddca"] ;
252 -> 253 ;
254 [label=<squared_error = 0.0<br/>samples = 1<br/>value = 0.4>, fillcolor="#f5cdb0"] ;
253 -> 254 ;
255 [label=<squared_error = 0.0<br/>samples = 2<br/>value = 0.2>, fillcolor="#fae6d7"] ;
253 -> 255 ;
256 [label=<pH &le; 0.102<br/>squared_error = 0.003<br/>samples = 24<br/>value = 0.4>, fillcolor="#f5cdb0"] ;
252 -> 256 ;
257 [label=<squared_error = 0.0<br/>samples = 1<br/>value = 0.2>, fillcolor="#fae6d7"] ;
256 -> 257 ;
258 [label=<sulphates &le; 0.677<br/>squared_error = 0.002<br/>samples = 23<br/>value = 0.409>, fillcolor="#f4ccae"] ;
256 -> 258 ;
259 [label=<squared_error = -0.0<br/>samples = 22<br/>value = 0.4>, fillcolor="#f5cdb0"] ;
258 -> 259 ;
260 [label=<squared_error = 0.0<br/>samples = 1<br/>value = 0.6>, fillcolor="#efb388"] ;
258 -> 260 ;
261 [label=<volatile acidity &le; 0.264<br/>squared_error = 0.01<br/>samples = 11<br/>value = 0.491>, fillcolor="#f2c19e"] ;
251 -> 261 ;
262 [label=<squared_error = 0.0<br/>samples = 4<br/>value = 0.4>, fillcolor="#f5cdb0"] ;
261 -> 262 ;
263 [label=<chlorides &le; 0.672<br/>squared_error = 0.008<br/>samples = 7<br/>value = 0.543>, fillcolor="#f1bb94"] ;
261 -> 263 ;
264 [label=<squared_error = 0.0<br/>samples = 5<br/>value = 0.6>, fillcolor="#efb388"] ;
263 -> 264 ;
265 [label=<squared_error = -0.0<br/>samples = 2<br/>value = 0.4>, fillcolor="#f5cdb0"] ;
263 -> 265 ;
266 [label=<density &le; 0.738<br/>squared_error = 0.02<br/>samples = 7<br/>value = 0.743>, fillcolor="#eca16c"] ;
214 -> 266 ;
267 [label=<free sulfur dioxide &le; 0.104<br/>squared_error = 0.008<br/>samples = 4<br/>value = 0.85>, fillcolor="#e99457"] ;
266 -> 267 ;
268 [label=<squared_error = 0.0<br/>samples = 1<br/>value = 1.0>, fillcolor="#e58139"] ;
267 -> 268 ;
269 [label=<squared_error = -0.0<br/>samples = 3<br/>value = 0.8>, fillcolor="#ea9a61"] ;
267 -> 269 ;
270 [label=<squared_error = -0.0<br/>samples = 3<br/>value = 0.6>, fillcolor="#efb388"] ;
266 -> 270 ;
271 [label=<total sulfur dioxide &le; 0.281<br/>squared_error = 0.022<br/>samples = 187<br/>value = 0.606>, fillcolor="#efb387"] ;
213 -> 271 ;
272 [label=<volatile acidity &le; 0.195<br/>squared_error = 0.02<br/>samples = 173<br/>value = 0.621>, fillcolor="#efb184"] ;
271 -> 272 ;
273 [label=<pH &le; 0.406<br/>squared_error = 0.019<br/>samples = 76<br/>value = 0.666>, fillcolor="#eeab7b"] ;
272 -> 273 ;
274 [label=<fixed acidity &le; 0.261<br/>squared_error = 0.016<br/>samples = 30<br/>value = 0.747>, fillcolor="#eca16b"] ;
273 -> 274 ;
275 [label=<squared_error = 0.0<br/>samples = 2<br/>value = 1.0>, fillcolor="#e58139"] ;
274 -> 275 ;
276 [label=<Id &le; 0.672<br/>squared_error = 0.012<br/>samples = 28<br/>value = 0.729>, fillcolor="#eca36f"] ;
274 -> 276 ;
277 [label=<alcohol &le; 0.323<br/>squared_error = 0.011<br/>samples = 22<br/>value = 0.755>, fillcolor="#eba06a"] ;
276 -> 277 ;
278 [label=<density &le; 0.571<br/>squared_error = 0.009<br/>samples = 8<br/>value = 0.675>, fillcolor="#edaa79"] ;
277 -> 278 ;
279 [label=<sulphates &le; 0.192<br/>squared_error = 0.008<br/>samples = 4<br/>value = 0.75>, fillcolor="#eca06a"] ;
278 -> 279 ;
280 [label=<squared_error = 0.0<br/>samples = 1<br/>value = 0.6>, fillcolor="#efb388"] ;
279 -> 280 ;
281 [label=<squared_error = 0.0<br/>samples = 3<br/>value = 0.8>, fillcolor="#ea9a61"] ;
279 -> 281 ;
282 [label=<squared_error = 0.0<br/>samples = 4<br/>value = 0.6>, fillcolor="#efb388"] ;
278 -> 282 ;
283 [label=<sulphates &le; 0.434<br/>squared_error = 0.006<br/>samples = 14<br/>value = 0.8>, fillcolor="#ea9a61"] ;
277 -> 283 ;
284 [label=<sulphates &le; 0.201<br/>squared_error = 0.003<br/>samples = 13<br/>value = 0.815>, fillcolor="#ea985e"] ;
283 -> 284 ;
285 [label=<alcohol &le; 0.369<br/>squared_error = 0.01<br/>samples = 2<br/>value = 0.9>, fillcolor="#e88e4d"] ;
284 -> 285 ;
286 [label=<squared_error = 0.0<br/>samples = 1<br/>value = 0.8>, fillcolor="#ea9a61"] ;
285 -> 286 ;
287 [label=<squared_error = 0.0<br/>samples = 1<br/>value = 1.0>, fillcolor="#e58139"] ;
285 -> 287 ;
288 [label=<citric acid &le; 0.385<br/>squared_error = 0.0<br/>samples = 11<br/>value = 0.8>, fillcolor="#ea9a61"] ;
284 -> 288 ;
289 [label=<squared_error = 0.0<br/>samples = 1<br/>value = 0.8>, fillcolor="#ea9a61"] ;
288 -> 289 ;
290 [label=<alcohol &le; 0.377<br/>squared_error = 0.0<br/>samples = 10<br/>value = 0.8>, fillcolor="#ea9a61"] ;
288 -> 290 ;
291 [label=<squared_error = 0.0<br/>samples = 5<br/>value = 0.8>, fillcolor="#ea9a61"] ;
290 -> 291 ;
292 [label=<citric acid &le; 0.46<br/>squared_error = 0.0<br/>samples = 5<br/>value = 0.8>, fillcolor="#ea9a61"] ;
290 -> 292 ;
293 [label=<squared_error = 0.0<br/>samples = 1<br/>value = 0.8>, fillcolor="#ea9a61"] ;
292 -> 293 ;
294 [label=<squared_error = 0.0<br/>samples = 4<br/>value = 0.8>, fillcolor="#ea9a61"] ;
292 -> 294 ;
295 [label=<squared_error = 0.0<br/>samples = 1<br/>value = 0.6>, fillcolor="#efb388"] ;
283 -> 295 ;
296 [label=<Id &le; 0.925<br/>squared_error = 0.006<br/>samples = 6<br/>value = 0.633>, fillcolor="#efaf82"] ;
276 -> 296 ;
297 [label=<squared_error = 0.0<br/>samples = 5<br/>value = 0.6>, fillcolor="#efb388"] ;
296 -> 297 ;
298 [label=<squared_error = -0.0<br/>samples = 1<br/>value = 0.8>, fillcolor="#ea9a61"] ;
296 -> 298 ;
299 [label=<density &le; 0.433<br/>squared_error = 0.015<br/>samples = 46<br/>value = 0.613>, fillcolor="#efb286"] ;
273 -> 299 ;
300 [label=<Id &le; 0.94<br/>squared_error = 0.014<br/>samples = 16<br/>value = 0.675>, fillcolor="#edaa79"] ;
299 -> 300 ;
301 [label=<pH &le; 0.445<br/>squared_error = 0.009<br/>samples = 11<br/>value = 0.727>, fillcolor="#eca36f"] ;
300 -> 301 ;
302 [label=<squared_error = 0.0<br/>samples = 3<br/>value = 0.6>, fillcolor="#efb388"] ;
301 -> 302 ;
303 [label=<Id &le; 0.285<br/>squared_error = 0.004<br/>samples = 8<br/>value = 0.775>, fillcolor="#eb9d66"] ;
301 -> 303 ;
304 [label=<squared_error = 0.0<br/>samples = 1<br/>value = 0.6>, fillcolor="#efb388"] ;
303 -> 304 ;
305 [label=<squared_error = 0.0<br/>samples = 7<br/>value = 0.8>, fillcolor="#ea9a61"] ;
303 -> 305 ;
306 [label=<free sulfur dioxide &le; 0.149<br/>squared_error = 0.006<br/>samples = 5<br/>value = 0.56>, fillcolor="#f0b890"] ;
300 -> 306 ;
307 [label=<squared_error = 0.0<br/>samples = 1<br/>value = 0.4>, fillcolor="#f5cdb0"] ;
306 -> 307 ;
308 [label=<squared_error = 0.0<br/>samples = 4<br/>value = 0.6>, fillcolor="#efb388"] ;
306 -> 308 ;
309 [label=<sulphates &le; 0.216<br/>squared_error = 0.012<br/>samples = 30<br/>value = 0.58>, fillcolor="#f0b68c"] ;
299 -> 309 ;
310 [label=<pH &le; 0.469<br/>squared_error = 0.006<br/>samples = 5<br/>value = 0.44>, fillcolor="#f4c8a8"] ;
309 -> 310 ;
311 [label=<squared_error = 0.0<br/>samples = 1<br/>value = 0.6>, fillcolor="#efb388"] ;
310 -> 311 ;
312 [label=<squared_error = 0.0<br/>samples = 4<br/>value = 0.4>, fillcolor="#f5cdb0"] ;
310 -> 312 ;
313 [label=<Id &le; 0.817<br/>squared_error = 0.008<br/>samples = 25<br/>value = 0.608>, fillcolor="#efb287"] ;
309 -> 313 ;
314 [label=<Id &le; 0.165<br/>squared_error = 0.005<br/>samples = 22<br/>value = 0.627>, fillcolor="#efb083"] ;
313 -> 314 ;
315 [label=<squared_error = 0.0<br/>samples = 1<br/>value = 0.8>, fillcolor="#ea9a61"] ;
314 -> 315 ;
316 [label=<free sulfur dioxide &le; 0.769<br/>squared_error = 0.003<br/>samples = 21<br/>value = 0.619>, fillcolor="#efb184"] ;
314 -> 316 ;
317 [label=<residual sugar &le; 0.267<br/>squared_error = 0.002<br/>samples = 20<br/>value = 0.61>, fillcolor="#efb286"] ;
316 -> 317 ;
318 [label=<pH &le; 0.413<br/>squared_error = 0.0<br/>samples = 19<br/>value = 0.6>, fillcolor="#efb388"] ;
317 -> 318 ;
319 [label=<squared_error = 0.0<br/>samples = 1<br/>value = 0.6>, fillcolor="#efb388"] ;
318 -> 319 ;
320 [label=<citric acid &le; 0.18<br/>squared_error = 0.0<br/>samples = 18<br/>value = 0.6>, fillcolor="#efb388"] ;
318 -> 320 ;
321 [label=<squared_error = 0.0<br/>samples = 1<br/>value = 0.6>, fillcolor="#efb388"] ;
320 -> 321 ;
322 [label=<residual sugar &le; 0.086<br/>squared_error = 0.0<br/>samples = 17<br/>value = 0.6>, fillcolor="#efb388"] ;
320 -> 322 ;
323 [label=<squared_error = 0.0<br/>samples = 6<br/>value = 0.6>, fillcolor="#efb388"] ;
322 -> 323 ;
324 [label=<Id &le; 0.171<br/>squared_error = 0.0<br/>samples = 11<br/>value = 0.6>, fillcolor="#efb388"] ;
322 -> 324 ;
325 [label=<squared_error = 0.0<br/>samples = 1<br/>value = 0.6>, fillcolor="#efb388"] ;
324 -> 325 ;
326 [label=<squared_error = 0.0<br/>samples = 10<br/>value = 0.6>, fillcolor="#efb388"] ;
324 -> 326 ;
327 [label=<squared_error = -0.0<br/>samples = 1<br/>value = 0.8>, fillcolor="#ea9a61"] ;
317 -> 327 ;
328 [label=<squared_error = -0.0<br/>samples = 1<br/>value = 0.8>, fillcolor="#ea9a61"] ;
316 -> 328 ;
329 [label=<residual sugar &le; 0.106<br/>squared_error = 0.009<br/>samples = 3<br/>value = 0.467>, fillcolor="#f3c4a3"] ;
313 -> 329 ;
330 [label=<squared_error = 0.0<br/>samples = 2<br/>value = 0.4>, fillcolor="#f5cdb0"] ;
329 -> 330 ;
331 [label=<squared_error = 0.0<br/>samples = 1<br/>value = 0.6>, fillcolor="#efb388"] ;
329 -> 331 ;
332 [label=<chlorides &le; 0.183<br/>squared_error = 0.018<br/>samples = 97<br/>value = 0.586>, fillcolor="#f0b58b"] ;
272 -> 332 ;
333 [label=<volatile acidity &le; 0.354<br/>squared_error = 0.015<br/>samples = 90<br/>value = 0.6>, fillcolor="#efb388"] ;
332 -> 333 ;
334 [label=<volatile acidity &le; 0.245<br/>squared_error = 0.014<br/>samples = 68<br/>value = 0.621>, fillcolor="#efb184"] ;
333 -> 334 ;
335 [label=<chlorides &le; 0.137<br/>squared_error = 0.012<br/>samples = 32<br/>value = 0.575>, fillcolor="#f0b78d"] ;
334 -> 335 ;
336 [label=<Id &le; 0.231<br/>squared_error = 0.009<br/>samples = 30<br/>value = 0.56>, fillcolor="#f0b890"] ;
335 -> 336 ;
337 [label=<fixed acidity &le; 0.633<br/>squared_error = 0.006<br/>samples = 5<br/>value = 0.44>, fillcolor="#f4c8a8"] ;
336 -> 337 ;
338 [label=<squared_error = 0.0<br/>samples = 3<br/>value = 0.4>, fillcolor="#f5cdb0"] ;
337 -> 338 ;
339 [label=<density &le; 0.674<br/>squared_error = 0.01<br/>samples = 2<br/>value = 0.5>, fillcolor="#f2c09c"] ;
337 -> 339 ;
340 [label=<squared_error = 0.0<br/>samples = 1<br/>value = 0.4>, fillcolor="#f5cdb0"] ;
339 -> 340 ;
341 [label=<squared_error = 0.0<br/>samples = 1<br/>value = 0.6>, fillcolor="#efb388"] ;
339 -> 341 ;
342 [label=<chlorides &le; 0.074<br/>squared_error = 0.006<br/>samples = 25<br/>value = 0.584>, fillcolor="#f0b58b"] ;
336 -> 342 ;
343 [label=<sulphates &le; 0.246<br/>squared_error = 0.01<br/>samples = 4<br/>value = 0.5>, fillcolor="#f2c09c"] ;
342 -> 343 ;
344 [label=<squared_error = 0.0<br/>samples = 2<br/>value = 0.6>, fillcolor="#efb388"] ;
343 -> 344 ;
345 [label=<squared_error = 0.0<br/>samples = 2<br/>value = 0.4>, fillcolor="#f5cdb0"] ;
343 -> 345 ;
346 [label=<pH &le; 0.547<br/>squared_error = 0.004<br/>samples = 21<br/>value = 0.6>, fillcolor="#efb388"] ;
342 -> 346 ;
347 [label=<chlorides &le; 0.133<br/>squared_error = 0.002<br/>samples = 19<br/>value = 0.611>, fillcolor="#efb286"] ;
346 -> 347 ;
348 [label=<fixed acidity &le; 0.204<br/>squared_error = 0.0<br/>samples = 17<br/>value = 0.6>, fillcolor="#efb388"] ;
347 -> 348 ;
349 [label=<squared_error = 0.0<br/>samples = 1<br/>value = 0.6>, fillcolor="#efb388"] ;
348 -> 349 ;
350 [label=<Id &le; 0.24<br/>squared_error = 0.0<br/>samples = 16<br/>value = 0.6>, fillcolor="#efb388"] ;
348 -> 350 ;
351 [label=<squared_error = 0.0<br/>samples = 1<br/>value = 0.6>, fillcolor="#efb388"] ;
350 -> 351 ;
352 [label=<fixed acidity &le; 0.217<br/>squared_error = 0.0<br/>samples = 15<br/>value = 0.6>, fillcolor="#efb388"] ;
350 -> 352 ;
353 [label=<squared_error = 0.0<br/>samples = 1<br/>value = 0.6>, fillcolor="#efb388"] ;
352 -> 353 ;
354 [label=<Id &le; 0.25<br/>squared_error = 0.0<br/>samples = 14<br/>value = 0.6>, fillcolor="#efb388"] ;
352 -> 354 ;
355 [label=<squared_error = 0.0<br/>samples = 1<br/>value = 0.6>, fillcolor="#efb388"] ;
354 -> 355 ;
356 [label=<fixed acidity &le; 0.438<br/>squared_error = 0.0<br/>samples = 13<br/>value = 0.6>, fillcolor="#efb388"] ;
354 -> 356 ;
357 [label=<squared_error = 0.0<br/>samples = 5<br/>value = 0.6>, fillcolor="#efb388"] ;
356 -> 357 ;
358 [label=<total sulfur dioxide &le; 0.051<br/>squared_error = 0.0<br/>samples = 8<br/>value = 0.6>, fillcolor="#efb388"] ;
356 -> 358 ;
359 [label=<squared_error = 0.0<br/>samples = 1<br/>value = 0.6>, fillcolor="#efb388"] ;
358 -> 359 ;
360 [label=<squared_error = -0.0<br/>samples = 7<br/>value = 0.6>, fillcolor="#efb388"] ;
358 -> 360 ;
361 [label=<residual sugar &le; 0.123<br/>squared_error = 0.01<br/>samples = 2<br/>value = 0.7>, fillcolor="#eda774"] ;
347 -> 361 ;
362 [label=<squared_error = 0.0<br/>samples = 1<br/>value = 0.8>, fillcolor="#ea9a61"] ;
361 -> 362 ;
363 [label=<squared_error = 0.0<br/>samples = 1<br/>value = 0.6>, fillcolor="#efb388"] ;
361 -> 363 ;
364 [label=<residual sugar &le; 0.086<br/>squared_error = 0.01<br/>samples = 2<br/>value = 0.5>, fillcolor="#f2c09c"] ;
346 -> 364 ;
365 [label=<squared_error = 0.0<br/>samples = 1<br/>value = 0.4>, fillcolor="#f5cdb0"] ;
364 -> 365 ;
366 [label=<squared_error = 0.0<br/>samples = 1<br/>value = 0.6>, fillcolor="#efb388"] ;
364 -> 366 ;
367 [label=<squared_error = -0.0<br/>samples = 2<br/>value = 0.8>, fillcolor="#ea9a61"] ;
335 -> 367 ;
368 [label=<volatile acidity &le; 0.25<br/>squared_error = 0.013<br/>samples = 36<br/>value = 0.661>, fillcolor="#eeac7c"] ;
334 -> 368 ;
369 [label=<squared_error = -0.0<br/>samples = 3<br/>value = 0.8>, fillcolor="#ea9a61"] ;
368 -> 369 ;
370 [label=<pH &le; 0.264<br/>squared_error = 0.012<br/>samples = 33<br/>value = 0.648>, fillcolor="#eead7f"] ;
368 -> 370 ;
371 [label=<squared_error = -0.0<br/>samples = 3<br/>value = 0.8>, fillcolor="#ea9a61"] ;
370 -> 371 ;
372 [label=<citric acid &le; 0.18<br/>squared_error = 0.011<br/>samples = 30<br/>value = 0.633>, fillcolor="#efaf82"] ;
370 -> 372 ;
373 [label=<density &le; 0.529<br/>squared_error = 0.01<br/>samples = 17<br/>value = 0.682>, fillcolor="#eda978"] ;
372 -> 373 ;
374 [label=<citric acid &le; 0.145<br/>squared_error = 0.007<br/>samples = 13<br/>value = 0.646>, fillcolor="#eeae7f"] ;
373 -> 374 ;
375 [label=<chlorides &le; 0.153<br/>squared_error = 0.003<br/>samples = 11<br/>value = 0.618>, fillcolor="#efb185"] ;
374 -> 375 ;
376 [label=<residual sugar &le; 0.048<br/>squared_error = 0.0<br/>samples = 10<br/>value = 0.6>, fillcolor="#efb388"] ;
375 -> 376 ;
377 [label=<squared_error = 0.0<br/>samples = 1<br/>value = 0.6>, fillcolor="#efb388"] ;
376 -> 377 ;
378 [label=<squared_error = 0.0<br/>samples = 9<br/>value = 0.6>, fillcolor="#efb388"] ;
376 -> 378 ;
379 [label=<squared_error = 0.0<br/>samples = 1<br/>value = 0.8>, fillcolor="#ea9a61"] ;
375 -> 379 ;
380 [label=<Id &le; 0.527<br/>squared_error = 0.0<br/>samples = 2<br/>value = 0.8>, fillcolor="#ea9a61"] ;
374 -> 380 ;
381 [label=<squared_error = 0.0<br/>samples = 1<br/>value = 0.8>, fillcolor="#ea9a61"] ;
380 -> 381 ;
382 [label=<squared_error = 0.0<br/>samples = 1<br/>value = 0.8>, fillcolor="#ea9a61"] ;
380 -> 382 ;
383 [label=<squared_error = -0.0<br/>samples = 4<br/>value = 0.8>, fillcolor="#ea9a61"] ;
373 -> 383 ;
384 [label=<citric acid &le; 0.2<br/>squared_error = 0.005<br/>samples = 13<br/>value = 0.569>, fillcolor="#f0b78e"] ;
372 -> 384 ;
385 [label=<squared_error = 0.0<br/>samples = 1<br/>value = 0.4>, fillcolor="#f5cdb0"] ;
384 -> 385 ;
386 [label=<fixed acidity &le; 0.673<br/>squared_error = 0.003<br/>samples = 12<br/>value = 0.583>, fillcolor="#f0b68c"] ;
384 -> 386 ;
387 [label=<squared_error = 0.0<br/>samples = 11<br/>value = 0.6>, fillcolor="#efb388"] ;
386 -> 387 ;
388 [label=<squared_error = -0.0<br/>samples = 1<br/>value = 0.4>, fillcolor="#f5cdb0"] ;
386 -> 388 ;
389 [label=<density &le; 0.962<br/>squared_error = 0.012<br/>samples = 22<br/>value = 0.536>, fillcolor="#f1bb95"] ;
333 -> 389 ;
390 [label=<volatile acidity &le; 0.361<br/>squared_error = 0.009<br/>samples = 21<br/>value = 0.524>, fillcolor="#f1bd97"] ;
389 -> 390 ;
391 [label=<squared_error = 0.0<br/>samples = 3<br/>value = 0.4>, fillcolor="#f5cdb0"] ;
390 -> 391 ;
392 [label=<sulphates &le; 0.219<br/>squared_error = 0.008<br/>samples = 18<br/>value = 0.544>, fillcolor="#f1ba93"] ;
390 -> 392 ;
393 [label=<density &le; 0.604<br/>squared_error = 0.01<br/>samples = 10<br/>value = 0.5>, fillcolor="#f2c09c"] ;
392 -> 393 ;
394 [label=<density &le; 0.453<br/>squared_error = 0.008<br/>samples = 7<br/>value = 0.457>, fillcolor="#f3c5a4"] ;
393 -> 394 ;
395 [label=<squared_error = 0.0<br/>samples = 2<br/>value = 0.6>, fillcolor="#efb388"] ;
394 -> 395 ;
396 [label=<squared_error = 0.0<br/>samples = 5<br/>value = 0.4>, fillcolor="#f5cdb0"] ;
394 -> 396 ;
397 [label=<volatile acidity &le; 0.404<br/>squared_error = 0.0<br/>samples = 3<br/>value = 0.6>, fillcolor="#efb388"] ;
393 -> 397 ;
398 [label=<squared_error = 0.0<br/>samples = 1<br/>value = 0.6>, fillcolor="#efb388"] ;
397 -> 398 ;
399 [label=<squared_error = 0.0<br/>samples = 2<br/>value = 0.6>, fillcolor="#efb388"] ;
397 -> 399 ;
400 [label=<fixed acidity &le; 0.208<br/>squared_error = 0.0<br/>samples = 8<br/>value = 0.6>, fillcolor="#efb388"] ;
392 -> 400 ;
401 [label=<squared_error = 0.0<br/>samples = 1<br/>value = 0.6>, fillcolor="#efb388"] ;
400 -> 401 ;
402 [label=<squared_error = -0.0<br/>samples = 7<br/>value = 0.6>, fillcolor="#efb388"] ;
400 -> 402 ;
403 [label=<squared_error = -0.0<br/>samples = 1<br/>value = 0.8>, fillcolor="#ea9a61"] ;
389 -> 403 ;
404 [label=<chlorides &le; 0.245<br/>squared_error = 0.023<br/>samples = 7<br/>value = 0.4>, fillcolor="#f5cdb0"] ;
332 -> 404 ;
405 [label=<Id &le; 0.456<br/>squared_error = 0.01<br/>samples = 5<br/>value = 0.32>, fillcolor="#f7d7c0"] ;
404 -> 405 ;
406 [label=<squared_error = 0.0<br/>samples = 2<br/>value = 0.4>, fillcolor="#f5cdb0"] ;
405 -> 406 ;
407 [label=<pH &le; 0.492<br/>squared_error = 0.009<br/>samples = 3<br/>value = 0.267>, fillcolor="#f8ddca"] ;
405 -> 407 ;
408 [label=<squared_error = 0.0<br/>samples = 1<br/>value = 0.4>, fillcolor="#f5cdb0"] ;
407 -> 408 ;
409 [label=<squared_error = 0.0<br/>samples = 2<br/>value = 0.2>, fillcolor="#fae6d7"] ;
407 -> 409 ;
410 [label=<squared_error = 0.0<br/>samples = 2<br/>value = 0.6>, fillcolor="#efb388"] ;
404 -> 410 ;
411 [label=<total sulfur dioxide &le; 0.445<br/>squared_error = 0.011<br/>samples = 14<br/>value = 0.429>, fillcolor="#f4c9aa"] ;
271 -> 411 ;
412 [label=<citric acid &le; 0.12<br/>squared_error = 0.007<br/>samples = 12<br/>value = 0.4>, fillcolor="#f5cdb0"] ;
411 -> 412 ;
413 [label=<squared_error = 0.0<br/>samples = 1<br/>value = 0.6>, fillcolor="#efb388"] ;
412 -> 413 ;
414 [label=<citric acid &le; 0.225<br/>squared_error = 0.003<br/>samples = 11<br/>value = 0.382>, fillcolor="#f5cfb3"] ;
412 -> 414 ;
415 [label=<squared_error = 0.0<br/>samples = 1<br/>value = 0.2>, fillcolor="#fae6d7"] ;
414 -> 415 ;
416 [label=<squared_error = 0.0<br/>samples = 10<br/>value = 0.4>, fillcolor="#f5cdb0"] ;
414 -> 416 ;
417 [label=<Id &le; 0.055<br/>squared_error = 0.0<br/>samples = 2<br/>value = 0.6>, fillcolor="#efb388"] ;
411 -> 417 ;
418 [label=<squared_error = 0.0<br/>samples = 1<br/>value = 0.6>, fillcolor="#efb388"] ;
417 -> 418 ;
419 [label=<squared_error = 0.0<br/>samples = 1<br/>value = 0.6>, fillcolor="#efb388"] ;
417 -> 419 ;
420 [label=<sulphates &le; 0.213<br/>squared_error = 0.024<br/>samples = 157<br/>value = 0.679>, fillcolor="#eda979"] ;
0 -> 420 [labeldistance=2.5, labelangle=-45, headlabel="False"] ;
421 [label=<pH &le; 0.421<br/>squared_error = 0.018<br/>samples = 80<br/>value = 0.618>, fillcolor="#efb185"] ;
420 -> 421 ;
422 [label=<volatile acidity &le; 0.099<br/>squared_error = 0.013<br/>samples = 22<br/>value = 0.727>, fillcolor="#eca36f"] ;
421 -> 422 ;
423 [label=<squared_error = 0.0<br/>samples = 1<br/>value = 1.0>, fillcolor="#e58139"] ;
422 -> 423 ;
424 [label=<chlorides &le; 0.162<br/>squared_error = 0.01<br/>samples = 21<br/>value = 0.714>, fillcolor="#eca572"] ;
422 -> 424 ;
425 [label=<alcohol &le; 0.623<br/>squared_error = 0.009<br/>samples = 18<br/>value = 0.733>, fillcolor="#eca36e"] ;
424 -> 425 ;
426 [label=<Id &le; 0.719<br/>squared_error = 0.008<br/>samples = 16<br/>value = 0.75>, fillcolor="#eca06a"] ;
425 -> 426 ;
427 [label=<total sulfur dioxide &le; 0.007<br/>squared_error = 0.003<br/>samples = 12<br/>value = 0.783>, fillcolor="#eb9c64"] ;
426 -> 427 ;
428 [label=<squared_error = 0.0<br/>samples = 1<br/>value = 0.6>, fillcolor="#efb388"] ;
427 -> 428 ;
429 [label=<squared_error = 0.0<br/>samples = 11<br/>value = 0.8>, fillcolor="#ea9a61"] ;
427 -> 429 ;
430 [label=<pH &le; 0.343<br/>squared_error = 0.008<br/>samples = 4<br/>value = 0.65>, fillcolor="#eead7e"] ;
426 -> 430 ;
431 [label=<squared_error = 0.0<br/>samples = 1<br/>value = 0.8>, fillcolor="#ea9a61"] ;
430 -> 431 ;
432 [label=<squared_error = 0.0<br/>samples = 3<br/>value = 0.6>, fillcolor="#efb388"] ;
430 -> 432 ;
433 [label=<squared_error = -0.0<br/>samples = 2<br/>value = 0.6>, fillcolor="#efb388"] ;
425 -> 433 ;
434 [label=<squared_error = -0.0<br/>samples = 3<br/>value = 0.6>, fillcolor="#efb388"] ;
424 -> 434 ;
435 [label=<free sulfur dioxide &le; 0.037<br/>squared_error = 0.014<br/>samples = 58<br/>value = 0.576>, fillcolor="#f0b68d"] ;
421 -> 435 ;
436 [label=<squared_error = 0.0<br/>samples = 1<br/>value = 0.2>, fillcolor="#fae6d7"] ;
435 -> 436 ;
437 [label=<density &le; 0.271<br/>squared_error = 0.012<br/>samples = 57<br/>value = 0.582>, fillcolor="#f0b68c"] ;
435 -> 437 ;
438 [label=<volatile acidity &le; 0.257<br/>squared_error = 0.012<br/>samples = 24<br/>value = 0.533>, fillcolor="#f1bc95"] ;
437 -> 438 ;
439 [label=<free sulfur dioxide &le; 0.075<br/>squared_error = 0.004<br/>samples = 8<br/>value = 0.625>, fillcolor="#efb083"] ;
438 -> 439 ;
440 [label=<squared_error = 0.0<br/>samples = 1<br/>value = 0.8>, fillcolor="#ea9a61"] ;
439 -> 440 ;
441 [label=<squared_error = -0.0<br/>samples = 7<br/>value = 0.6>, fillcolor="#efb388"] ;
439 -> 441 ;
442 [label=<citric acid &le; 0.03<br/>squared_error = 0.01<br/>samples = 16<br/>value = 0.488>, fillcolor="#f2c29e"] ;
438 -> 442 ;
443 [label=<chlorides &le; 0.089<br/>squared_error = 0.005<br/>samples = 7<br/>value = 0.571>, fillcolor="#f0b78e"] ;
442 -> 443 ;
444 [label=<squared_error = 0.0<br/>samples = 6<br/>value = 0.6>, fillcolor="#efb388"] ;
443 -> 444 ;
445 [label=<squared_error = -0.0<br/>samples = 1<br/>value = 0.4>, fillcolor="#f5cdb0"] ;
443 -> 445 ;
446 [label=<fixed acidity &le; 0.217<br/>squared_error = 0.004<br/>samples = 9<br/>value = 0.422>, fillcolor="#f4caab"] ;
442 -> 446 ;
447 [label=<squared_error = 0.0<br/>samples = 8<br/>value = 0.4>, fillcolor="#f5cdb0"] ;
446 -> 447 ;
448 [label=<squared_error = 0.0<br/>samples = 1<br/>value = 0.6>, fillcolor="#efb388"] ;
446 -> 448 ;
449 [label=<free sulfur dioxide &le; 0.433<br/>squared_error = 0.008<br/>samples = 33<br/>value = 0.618>, fillcolor="#efb185"] ;
437 -> 449 ;
450 [label=<volatile acidity &le; 0.514<br/>squared_error = 0.006<br/>samples = 31<br/>value = 0.606>, fillcolor="#efb387"] ;
449 -> 450 ;
451 [label=<citric acid &le; 0.13<br/>squared_error = 0.005<br/>samples = 30<br/>value = 0.613>, fillcolor="#efb286"] ;
450 -> 451 ;
452 [label=<Id &le; 0.95<br/>squared_error = 0.002<br/>samples = 15<br/>value = 0.587>, fillcolor="#f0b58b"] ;
451 -> 452 ;
453 [label=<squared_error = 0.0<br/>samples = 12<br/>value = 0.6>, fillcolor="#efb388"] ;
452 -> 453 ;
454 [label=<Id &le; 0.964<br/>squared_error = 0.009<br/>samples = 3<br/>value = 0.533>, fillcolor="#f1bc95"] ;
452 -> 454 ;
455 [label=<squared_error = 0.0<br/>samples = 1<br/>value = 0.4>, fillcolor="#f5cdb0"] ;
454 -> 455 ;
456 [label=<squared_error = 0.0<br/>samples = 2<br/>value = 0.6>, fillcolor="#efb388"] ;
454 -> 456 ;
457 [label=<fixed acidity &le; 0.097<br/>squared_error = 0.006<br/>samples = 15<br/>value = 0.64>, fillcolor="#eeae80"] ;
451 -> 457 ;
458 [label=<squared_error = 0.0<br/>samples = 1<br/>value = 0.8>, fillcolor="#ea9a61"] ;
457 -> 458 ;
459 [label=<volatile acidity &le; 0.151<br/>squared_error = 0.005<br/>samples = 14<br/>value = 0.629>, fillcolor="#efb083"] ;
457 -> 459 ;
460 [label=<alcohol &le; 0.554<br/>squared_error = 0.01<br/>samples = 2<br/>value = 0.7>, fillcolor="#eda774"] ;
459 -> 460 ;
461 [label=<squared_error = 0.0<br/>samples = 1<br/>value = 0.6>, fillcolor="#efb388"] ;
460 -> 461 ;
462 [label=<squared_error = 0.0<br/>samples = 1<br/>value = 0.8>, fillcolor="#ea9a61"] ;
460 -> 462 ;
463 [label=<citric acid &le; 0.145<br/>squared_error = 0.003<br/>samples = 12<br/>value = 0.617>, fillcolor="#efb185"] ;
459 -> 463 ;
464 [label=<alcohol &le; 0.492<br/>squared_error = 0.01<br/>samples = 2<br/>value = 0.7>, fillcolor="#eda774"] ;
463 -> 464 ;
465 [label=<squared_error = 0.0<br/>samples = 1<br/>value = 0.6>, fillcolor="#efb388"] ;
464 -> 465 ;
466 [label=<squared_error = 0.0<br/>samples = 1<br/>value = 0.8>, fillcolor="#ea9a61"] ;
464 -> 466 ;
467 [label=<squared_error = 0.0<br/>samples = 10<br/>value = 0.6>, fillcolor="#efb388"] ;
463 -> 467 ;
468 [label=<squared_error = -0.0<br/>samples = 1<br/>value = 0.4>, fillcolor="#f5cdb0"] ;
450 -> 468 ;
469 [label=<squared_error = -0.0<br/>samples = 2<br/>value = 0.8>, fillcolor="#ea9a61"] ;
449 -> 469 ;
470 [label=<chlorides &le; 0.137<br/>squared_error = 0.022<br/>samples = 77<br/>value = 0.743>, fillcolor="#eca16c"] ;
420 -> 470 ;
471 [label=<free sulfur dioxide &le; 0.284<br/>squared_error = 0.018<br/>samples = 64<br/>value = 0.769>, fillcolor="#eb9e67"] ;
470 -> 471 ;
472 [label=<alcohol &le; 0.638<br/>squared_error = 0.018<br/>samples = 45<br/>value = 0.8>, fillcolor="#ea9a61"] ;
471 -> 472 ;
473 [label=<chlorides &le; 0.081<br/>squared_error = 0.016<br/>samples = 30<br/>value = 0.767>, fillcolor="#eb9e67"] ;
472 -> 473 ;
474 [label=<density &le; 0.339<br/>squared_error = 0.018<br/>samples = 9<br/>value = 0.667>, fillcolor="#eeab7b"] ;
473 -> 474 ;
475 [label=<squared_error = 0.0<br/>samples = 4<br/>value = 0.8>, fillcolor="#ea9a61"] ;
474 -> 475 ;
476 [label=<citric acid &le; 0.37<br/>squared_error = 0.006<br/>samples = 5<br/>value = 0.56>, fillcolor="#f0b890"] ;
474 -> 476 ;
477 [label=<squared_error = 0.0<br/>samples = 1<br/>value = 0.4>, fillcolor="#f5cdb0"] ;
476 -> 477 ;
478 [label=<squared_error = 0.0<br/>samples = 4<br/>value = 0.6>, fillcolor="#efb388"] ;
476 -> 478 ;
479 [label=<sulphates &le; 0.222<br/>squared_error = 0.009<br/>samples = 21<br/>value = 0.81>, fillcolor="#ea995f"] ;
473 -> 479 ;
480 [label=<squared_error = 0.0<br/>samples = 2<br/>value = 1.0>, fillcolor="#e58139"] ;
479 -> 480 ;
481 [label=<fixed acidity &le; 0.438<br/>squared_error = 0.006<br/>samples = 19<br/>value = 0.789>, fillcolor="#ea9c63"] ;
479 -> 481 ;
482 [label=<chlorides &le; 0.113<br/>squared_error = 0.002<br/>samples = 15<br/>value = 0.813>, fillcolor="#ea995e"] ;
481 -> 482 ;
483 [label=<squared_error = 0.0<br/>samples = 14<br/>value = 0.8>, fillcolor="#ea9a61"] ;
482 -> 483 ;
484 [label=<squared_error = 0.0<br/>samples = 1<br/>value = 1.0>, fillcolor="#e58139"] ;
482 -> 484 ;
485 [label=<total sulfur dioxide &le; 0.049<br/>squared_error = 0.01<br/>samples = 4<br/>value = 0.7>, fillcolor="#eda774"] ;
481 -> 485 ;
486 [label=<squared_error = 0.0<br/>samples = 2<br/>value = 0.6>, fillcolor="#efb388"] ;
485 -> 486 ;
487 [label=<squared_error = 0.0<br/>samples = 2<br/>value = 0.8>, fillcolor="#ea9a61"] ;
485 -> 487 ;
488 [label=<Id &le; 0.289<br/>squared_error = 0.014<br/>samples = 15<br/>value = 0.867>, fillcolor="#e89253"] ;
472 -> 488 ;
489 [label=<squared_error = 0.0<br/>samples = 4<br/>value = 1.0>, fillcolor="#e58139"] ;
488 -> 489 ;
490 [label=<free sulfur dioxide &le; 0.097<br/>squared_error = 0.011<br/>samples = 11<br/>value = 0.818>, fillcolor="#ea985d"] ;
488 -> 490 ;
491 [label=<squared_error = 0.0<br/>samples = 1<br/>value = 0.6>, fillcolor="#efb388"] ;
490 -> 491 ;
492 [label=<free sulfur dioxide &le; 0.112<br/>squared_error = 0.006<br/>samples = 10<br/>value = 0.84>, fillcolor="#e99559"] ;
490 -> 492 ;
493 [label=<squared_error = 0.0<br/>samples = 1<br/>value = 1.0>, fillcolor="#e58139"] ;
492 -> 493 ;
494 [label=<free sulfur dioxide &le; 0.261<br/>squared_error = 0.004<br/>samples = 9<br/>value = 0.822>, fillcolor="#ea975c"] ;
492 -> 494 ;
495 [label=<squared_error = 0.0<br/>samples = 8<br/>value = 0.8>, fillcolor="#ea9a61"] ;
494 -> 495 ;
496 [label=<squared_error = 0.0<br/>samples = 1<br/>value = 1.0>, fillcolor="#e58139"] ;
494 -> 496 ;
497 [label=<pH &le; 0.5<br/>squared_error = 0.01<br/>samples = 19<br/>value = 0.695>, fillcolor="#eda775"] ;
471 -> 497 ;
498 [label=<fixed acidity &le; 0.164<br/>squared_error = 0.007<br/>samples = 12<br/>value = 0.75>, fillcolor="#eca06a"] ;
497 -> 498 ;
499 [label=<squared_error = 0.0<br/>samples = 1<br/>value = 0.6>, fillcolor="#efb388"] ;
498 -> 499 ;
500 [label=<pH &le; 0.335<br/>squared_error = 0.006<br/>samples = 11<br/>value = 0.764>, fillcolor="#eb9f68"] ;
498 -> 500 ;
501 [label=<squared_error = 0.0<br/>samples = 1<br/>value = 0.6>, fillcolor="#efb388"] ;
500 -> 501 ;
502 [label=<pH &le; 0.449<br/>squared_error = 0.004<br/>samples = 10<br/>value = 0.78>, fillcolor="#eb9d65"] ;
500 -> 502 ;
503 [label=<squared_error = 0.0<br/>samples = 6<br/>value = 0.8>, fillcolor="#ea9a61"] ;
502 -> 503 ;
504 [label=<alcohol &le; 0.538<br/>squared_error = 0.008<br/>samples = 4<br/>value = 0.75>, fillcolor="#eca06a"] ;
502 -> 504 ;
505 [label=<squared_error = 0.0<br/>samples = 3<br/>value = 0.8>, fillcolor="#ea9a61"] ;
504 -> 505 ;
506 [label=<squared_error = -0.0<br/>samples = 1<br/>value = 0.6>, fillcolor="#efb388"] ;
504 -> 506 ;
507 [label=<density &le; 0.084<br/>squared_error = 0.0<br/>samples = 7<br/>value = 0.6>, fillcolor="#efb388"] ;
497 -> 507 ;
508 [label=<squared_error = 0.0<br/>samples = 1<br/>value = 0.6>, fillcolor="#efb388"] ;
507 -> 508 ;
509 [label=<squared_error = -0.0<br/>samples = 6<br/>value = 0.6>, fillcolor="#efb388"] ;
507 -> 509 ;
510 [label=<residual sugar &le; 0.217<br/>squared_error = 0.021<br/>samples = 13<br/>value = 0.615>, fillcolor="#efb185"] ;
470 -> 510 ;
511 [label=<Id &le; 0.683<br/>squared_error = 0.01<br/>samples = 10<br/>value = 0.68>, fillcolor="#eda978"] ;
510 -> 511 ;
512 [label=<squared_error = 0.0<br/>samples = 4<br/>value = 0.8>, fillcolor="#ea9a61"] ;
511 -> 512 ;
513 [label=<Id &le; 0.75<br/>squared_error = 0.0<br/>samples = 6<br/>value = 0.6>, fillcolor="#efb388"] ;
511 -> 513 ;
514 [label=<squared_error = 0.0<br/>samples = 1<br/>value = 0.6>, fillcolor="#efb388"] ;
513 -> 514 ;
515 [label=<squared_error = 0.0<br/>samples = 5<br/>value = 0.6>, fillcolor="#efb388"] ;
513 -> 515 ;
516 [label=<squared_error = -0.0<br/>samples = 3<br/>value = 0.4>, fillcolor="#f5cdb0"] ;
510 -> 516 ;
}